3 100
a 0.002188 -0.004593 -0.003140 0.000546 0.003115 -0.004208 -0.002410 0.003387 -0.003873 -0.001823 -0.003427 0.000893 -0.001222 0.000310 -0.002962 -0.004941 -0.002791 0.004750 -0.002069 -0.000840 -0.002309 -0.001181 0.004206 -0.003519 0.002439 -0.004334 -0.001547 -0.003730 -0.000580 -0.004242 -0.003671 0.002375 -0.002405 -0.003714 -0.003120 0.002739 -0.000285 -0.001318 -0.003900 -0.002863 0.002926 0.003332 0.001931 0.002116 0.004976 0.000287 -0.003724 0.001475 -0.001339 0.002246 -0.000488 0.001445 0.003392 -0.001584 0.001007 0.004282 0.004227 0.002660 0.003752 -0.001847 0.002289 -0.002539 -0.001225 0.002310 0.001496 0.002789 -0.003390 -0.004188 0.004128 -0.000095 -0.003417 0.003033 -0.001013 -0.004943 -0.004021 0.004391 0.004913 0.003519 -0.002965 0.001117 0.000088 -0.004663 0.003933 -0.002521 0.000573 0.001937 -0.004073 0.001780 0.003016 -0.003091 -0.001929 -0.004125 0.004996 -0.002095 -0.000122 -0.002202 -0.002759 -0.004804 -0.001164 0.000646
  -0.000502 -0.000391 0.002784 0.004201 0.000390 -0.002368 -0.000707 0.002131 -0.002202 0.000562 -0.001276 0.004030 0.000205 0.000634 -0.003710 -0.004457 -0.001026 -0.000752 -0.004801 0.001093 0.004936 -0.003030 0.001817 -0.004703 0.003405 -0.000362 0.004123 -0.004484 -0.002311 -0.004793 0.003421 -0.000896 0.001700 -0.001727 0.004894 0.001408 0.002418 0.003248 0.002722 0.000509 0.002956 -0.004470 -0.000721 -0.002084 0.004067 0.000549 -0.004051 -0.004102 0.001268 0.000944 0.001815 -0.003750 -0.004410 -0.002421 -0.001039 0.002797 -0.000283 -0.001786 0.002541 -0.002511 -0.000181 0.004958 -0.004200 -0.002237 -0.002475 0.003494 -0.000374 -0.002323 0.001837 0.003293 0.001013 0.002196 -0.003842 -0.001256 0.004570 -0.002311 -0.000224 0.003403 0.003400 0.001001 -0.000654 0.002479 0.002544 -0.004862 -0.004456 -0.000747 -0.001938 -0.001360 -0.002079 -0.001057 0.002370 -0.004611 -0.000151 0.004875 -0.001199 0.001012 -0.000032 0.000907 -0.001775 -0.000423
d -0.001881 -0.001047 0.002538 0.002992 0.004559 0.001445 -0.004550 0.002160 -0.004360 -0.000892 -0.002266 0.004616 -0.004214 0.004085 -0.003593 0.001247 0.003561 -0.004436 -0.001887 0.003458 0.001178 -0.000452 0.004777 -0.003918 -0.003784 -0.001036 0.004761 0.002300 0.001321 0.000301 0.003146 -0.000796 0.002793 0.001601 0.000936 -0.004840 -0.000552 0.002013 -0.002080 0.004660 0.002504 0.000852 0.004444 0.002102 -0.004051 0.003162 0.000130 -0.003838 -0.001514 -0.003880 0.004585 0.003951 -0.004486 0.001844 -0.003279 0.000678 -0.003072 0.002427 0.001658 -0.001803 0.002706 0.002687 0.004364 0.004232 0.001619 0.002613 -0.003436 -0.001254 0.001202 -0.004386 -0.004219 0.003308 -0.004318 0.000263 0.001828 -0.004359 0.001436 0.002051 -0.001764 -0.003145 -0.003790 -0.002096 -0.000244 -0.004137 0.001760 0.003673 0.001162 -0.004180 -0.001860 -0.001097 -0.000994 0.002513 -0.003284 0.003743 0.003630 -0.002215 -0.000081 -0.000578 0.003539 0.001838
