8 100
state -0.001324 -0.002292 -0.000018 0.001143 -0.000821 0.004412 -0.002053 -0.003767 0.002208 0.002461 -0.002717 0.001946 -0.003515 -0.004146 -0.003321 -0.003460 -0.000953 -0.002784 -0.000717 -0.002073 -0.001061 0.001073 -0.003945 0.000839 0.002994 0.000047 0.004248 0.000558 0.003150 0.002257 -0.003776 0.002457 0.002188 -0.003978 -0.004570 0.003451 -0.002025 0.002024 -0.000495 -0.000920 -0.004773 -0.002434 0.000295 -0.002082 -0.001346 0.001058 0.002729 0.004043 0.001314 0.003594 -0.003581 0.002705 -0.000149 0.000657 0.001562 -0.002819 -0.000116 0.004580 -0.000947 -0.004507 -0.001815 0.004134 0.003040 0.001243 0.003833 -0.003771 0.001833 -0.004338 -0.002465 0.003512 0.001572 -0.004730 0.001455 -0.004133 0.003190 -0.000550 -0.000677 0.001695 0.001628 -0.002489 0.000604 0.000923 -0.002582 0.001416 -0.002421 0.002055 -0.002615 0.004755 -0.003676 -0.001952 0.002258 -0.002838 -0.003222 0.002044 -0.003081 -0.003487 -0.002651 -0.002622 -0.000186 -0.002530
current -0.001211 0.003318 0.003385 -0.004018 0.002696 0.000856 -0.004652 0.001007 -0.002016 -0.000194 -0.000539 -0.003739 -0.004765 -0.000744 -0.003634 0.001590 0.004239 -0.001082 0.004463 0.000955 -0.003818 0.000044 0.002195 0.003096 0.004326 -0.003348 -0.001606 -0.002345 0.003032 -0.001534 0.000420 0.004478 0.003078 -0.004038 -0.002813 0.001539 0.004093 -0.003121 -0.000373 0.004902 -0.003516 0.004565 -0.002124 0.004863 0.000228 -0.002733 0.000832 -0.004993 -0.004736 -0.001802 0.001720 -0.000332 0.000567 0.003724 -0.004547 -0.003669 0.002989 -0.004737 0.004921 -0.002831 0.000887 -0.001791 -0.001645 -0.002076 -0.000645 0.002987 0.004243 0.001967 -0.003905 0.003892 0.002482 0.001556 -0.000208 0.000330 0.004370 -0.002723 -0.004538 -0.000489 -0.001058 0.004010 0.003267 0.001953 0.000775 0.002632 0.003539 0.000900 -0.002143 -0.000441 -0.001156 0.000998 -0.004512 -0.002974 -0.002993 -0.000787 0.000608 0.002396 -0.002632 0.003576 0.000963 0.003640
run -0.002810 -0.004945 0.001200 0.000489 -0.000579 0.000039 -0.000799 -0.002516 0.003117 -0.004781 0.002684 -0.002254 -0.004832 0.001451 0.001766 0.002399 0.001752 -0.002580 -0.002026 -0.004126 0.003134 0.001667 -0.003121 0.002387 0.002415 -0.004862 -0.001639 0.004376 0.000783 -0.003917 -0.002645 0.004251 0.002761 -0.002515 0.002728 0.002395 -0.000137 0.000885 0.000499 -0.004772 0.002591 0.002694 0.003540 0.003395 -0.001569 0.003056 -0.004232 0.004480 0.004655 -0.000176 -0.004368 -0.004923 -0.000538 -0.000245 -0.000229 0.000066 -0.000150 -0.002135 -0.002495 0.001894 0.004145 0.002698 -0.003665 -0.001452 -0.001405 0.000349 -0.004849 -0.002632 0.003629 0.003163 0.002143 -0.000389 -0.000017 0.003439 -0.001242 -0.000893 0.000064 0.003558 0.000876 0.004742 0.000166 -0.001534 -0.001308 0.004548 -0.000420 -0.000360 -0.000027 0.004192 0.004440 -0.003299 -0.000293 -0.003301 0.000881 -0.000223 0.002591 -0.001518 -0.002712 0.004688 -0.001106 0.003145
add -0.003950 0.001446 -0.001333 0.000329 -0.003498 -0.000980 -0.003120 0.002953 -0.001086 0.003900 -0.000120 0.003046 -0.001260 -0.001852 0.003572 -0.000350 0.004142 0.002616 -0.003367 0.000693 0.003083 -0.002557 -0.003010 -0.004615 -0.001776 0.000595 0.002846 0.003964 -0.004371 -0.003986 -0.003954 -0.000169 0.002227 0.001040 0.001034 0.002381 0.002903 0.003460 0.002836 -0.002763 0.001247 -0.003210 0.000018 -0.004846 -0.001785 0.003563 -0.002775 -0.001749 0.002504 0.000185 -0.001078 0.004661 0.000469 -0.003154 -0.003227 0.004489 0.003597 0.004055 0.000374 -0.001915 0.000909 0.003624 -0.004051 -0.004284 -0.004930 -0.000680 0.001482 0.002379 0.004422 0.002132 0.003155 0.000154 0.000528 -0.003446 -0.000805 0.001976 -0.004102 -0.004371 -0.000079 -0.004842 -0.002012 0.000278 0.000276 0.002771 -0.003715 0.002570 0.004042 -0.001475 -0.003980 -0.003062 0.004837 -0.001924 -0.004399 0.004097 0.000337 0.004193 0.001545 -0.004881 -0.003614 -0.002961
daemon -0.002677 -0.000622 0.004008 0.003489 -0.004121 0.003884 0.002050 0.002271 0.003605 0.000752 -0.003005 -0.004186 -0.000815 0.003217 -0.003028 -0.000596 -0.004582 0.004213 0.003019 0.002538 0.002576 0.001607 -0.001465 -0.004143 -0.003724 -0.004239 0.004950 -0.003024 -0.004993 -0.000061 -0.004611 -0.002940 0.003528 -0.000062 -0.002877 0.000534 0.003313 0.004907 0.001987 0.000034 -0.002187 0.004191 0.001930 -0.004535 -0.004304 0.000377 0.002848 -0.004226 0.003133 -0.002990 -0.003753 -0.000960 -0.000460 -0.002109 0.004172 -0.004077 -0.002979 -0.001406 -0.000980 0.004778 0.001951 0.003621 0.001753 0.004912 -0.002095 -0.000799 -0.002038 -0.001907 0.002817 -0.000503 0.000282 -0.001773 0.004681 0.000616 0.000460 -0.000145 -0.003998 0.000637 -0.002920 -0.000525 -0.004993 -0.000991 -0.001441 -0.001340 -0.001585 0.003734 0.003441 -0.001893 -0.001912 -0.004096 -0.000384 0.004111 -0.004457 -0.003892 0.000660 -0.000755 0.002820 0.000303 0.000727 0.004185
transit 0.003811 0.004033 0.001998 -0.001519 0.000711 -0.003790 0.001870 -0.001546 -0.001599 0.003808 0.004004 0.002798 -0.004774 -0.000258 -0.003874 0.000818 0.001903 -0.003802 0.000971 -0.001490 -0.004540 0.001548 0.003363 0.004480 0.002753 -0.004607 -0.004708 -0.000296 0.004790 -0.000930 -0.004386 -0.001593 0.003667 0.000865 0.003313 0.001613 -0.000346 0.003457 -0.002820 0.004941 0.000270 -0.003104 -0.003126 0.003890 -0.002551 0.002861 -0.003189 0.002231 -0.002029 0.000621 -0.004221 -0.002459 -0.002162 0.002183 -0.003471 -0.004327 -0.000888 0.001341 -0.002525 0.003173 -0.003896 -0.003544 0.001810 -0.000422 -0.004313 -0.000486 0.001262 -0.004554 -0.000919 0.001650 0.003109 0.004253 0.001246 -0.001833 0.002375 -0.000034 0.001014 0.004592 -0.004432 -0.004077 0.001291 -0.002737 0.002588 0.004852 0.003579 0.004561 -0.002180 -0.003310 -0.003776 0.003840 -0.002393 -0.002534 -0.003309 0.001203 -0.004463 -0.000280 0.000954 -0.004561 0.001144 0.000616
addit -0.004594 -0.001798 0.004194 -0.004123 0.004657 -0.002999 0.001035 -0.004651 0.002674 -0.001482 0.004085 -0.001615 -0.003565 0.004507 0.004252 -0.002848 -0.004044 -0.000436 0.003514 0.000311 -0.002492 0.000565 0.004256 -0.004547 -0.004881 0.004041 0.002944 0.002169 0.001420 0.000671 0.002832 0.004870 -0.003725 -0.000289 0.004614 -0.001084 0.001194 -0.003205 0.001127 0.001440 -0.001047 0.002341 0.002565 -0.002373 0.004381 0.002568 0.002152 -0.004409 0.004077 0.000472 -0.003953 0.000663 0.003902 0.000619 0.004386 -0.001191 0.004507 -0.001572 -0.004089 0.000306 -0.004187 0.003000 0.002079 -0.004775 0.000712 0.001373 0.003349 0.000743 0.004564 -0.002771 -0.003429 0.001277 0.002737 -0.000971 -0.002790 0.001730 0.000234 0.004082 -0.003737 0.003835 0.000704 -0.004026 0.001707 -0.004809 0.000679 0.004390 -0.003148 0.002200 -0.000604 -0.001442 0.002579 0.003930 0.002580 -0.004567 -0.003313 0.000267 0.000104 0.004332 0.000473 0.003469
server -0.001292 0.003644 -0.002379 -0.001947 -0.000921 0.000255 0.001226 0.001714 0.002667 0.002099 0.001756 -0.000200 0.000284 -0.001437 0.004219 0.004558 0.002151 -0.000633 0.000683 -0.002922 -0.001016 -0.004924 -0.001599 -0.001246 -0.001045 -0.003410 -0.003016 0.000995 0.002882 -0.002209 -0.002649 -0.001199 0.001422 -0.001882 0.001650 0.000098 0.004457 -0.004889 0.003204 -0.000320 0.000189 0.000015 -0.000462 -0.003299 -0.001070 0.002813 -0.004934 -0.001957 -0.003885 -0.003215 -0.002835 -0.001922 0.003580 0.001120 0.004695 0.001701 0.000504 0.000774 -0.002858 -0.001062 -0.002659 0.003947 0.001902 -0.001351 -0.001119 0.004603 -0.001708 0.003698 -0.000044 0.000283 -0.000966 -0.004562 -0.002507 0.000524 -0.002858 -0.002141 0.002952 0.003103 -0.003630 -0.004905 0.001925 -0.002964 0.002877 0.001701 0.000030 -0.003655 0.001792 -0.000765 0.001298 -0.003126 0.003202 -0.003443 -0.004695 -0.002285 -0.000863 0.001198 -0.000402 -0.000214 -0.000686 -0.003420
